{
  "metrics": {
    "lightgbm": 0.8956531346653553,
    "xgboost": 0.891496886170378,
    "catboost": 0.658682897473654,
    "random_forest": 0.7401362134212612,
    "tabnet": 0.6854517786186274
  },
  "weights": [
    0.25,
    0.25,
    0.25,
    0.25
  ],
  "selected_models": [
    "lightgbm",
    "xgboost",
    "catboost",
    "random_forest"
  ],
  "thresholds": [
    0.8943156125497216,
    0.9,
    0.1,
    0.9
  ],
  "indicator_columns": [],
  "region_column": "district",
  "farmer_column": null,
  "stacking": {
    "meta_model": "LogisticRegression",
    "solver": "lbfgs",
    "class_weight": "balanced",
    "coef": [
      [
        1.1279441282792655,
        0.11361013146982893,
        -0.8427645643084508,
        0.40476602676430856,
        -0.1600833203149206,
        -0.082730564918382,
        0.3317910217251117,
        -0.4213828662230432,
        -0.11785987818844712,
        0.13199233822767342,
        -0.11005262554011969,
        0.1817125496545846,
        0.254147742845402,
        -0.13784797732614645,
        -0.062064971858066934,
        0.026712836656805163
      ],
      [
        -0.21986186887052953,
        0.265011983883953,
        0.021591184579930943,
        -0.2556879033265788,
        0.21363427015221276,
        0.45788271034401956,
        -0.421599172314184,
        -0.0872953640816571,
        0.1616796383032037,
        0.02149127737161386,
        -0.015070790284084961,
        -0.1609815897843098,
        -0.2537670973870684,
        0.3167836862933642,
        -0.12854710404210695,
        0.10271542928626046
      ],
      [
        -0.46816050583683116,
        -0.4777914942032647,
        1.2335584392460246,
        -1.4491418479163007,
        0.09850478443367235,
        0.14754222667722225,
        -0.5619066497727389,
        0.9010082127611886,
        -0.06768621127230447,
        -0.025189317948312393,
        0.1431087675961917,
        -0.18435993231877465,
        -0.05441571333358136,
        -0.1959531177540349,
        0.2768841752942698,
        -0.21435354164125614
      ],
      [
        -0.4399217535719162,
        0.09916937884947587,
        -0.4123850595175075,
        1.300063724478567,
        -0.15205573427096092,
        -0.5226943721028774,
        0.6517148003617926,
        -0.3923299824564862,
        0.023866451157574704,
        -0.1282942976509747,
        -0.017985351771967667,
        0.1636289724485029,
        0.054035067875240844,
        0.017017408786809917,
        -0.08627209939410073,
        0.08492527569819122
      ]
    ],
    "intercept": [
      -1.913765472986721,
      -0.5325352397611166,
      2.7313689117944557,
      -0.2850681990466486
    ],
    "scaler_mean": [
      0.03431993065584315,
      0.07455076456848275,
      0.8676672258646372,
      0.02346207891103585,
      0.033466832973723895,
      0.07279299555118501,
      0.8718458658576876,
      0.021894303893218954,
      0.09740370982951199,
      0.1427284325092984,
      0.6273911531943929,
      0.13247670446680715,
      0.06773589112981168,
      0.12731138453243737,
      0.694883580497907,
      0.11006914383984517
    ],
    "scaler_scale": [
      0.16223774828492962,
      0.2406257312337791,
      0.3151362827410139,
      0.1365061587306956,
      0.16544746003893201,
      0.24696660574361093,
      0.322528553336408,
      0.14261282852373117,
      0.17960851097794525,
      0.20868002989113935,
      0.34798560424750974,
      0.17566866788795354,
      0.17062966247436087,
      0.20861096085256656,
      0.3032423952502509,
      0.15768397054787808
    ]
  }
}